digraph Tree {
node [shape=box, style="filled", color="black"] ;
0 [label="Sex_male <= 0.5\ngini = 0.473\nsamples = 891\nvalue = [549, 342]", fillcolor="#e5813960"] ;
1 [label="PClass_3 <= 0.5\ngini = 0.383\nsamples = 314\nvalue = [81, 233]", fillcolor="#399de5a6"] ;
0 -> 1 [labeldistance=2.5, labelangle=45, headlabel="True"] ;
2 [label="gini = 0.1\nsamples = 170\nvalue = [9, 161]", fillcolor="#399de5f1"] ;
1 -> 2 ;
3 [label="gini = 0.5\nsamples = 144\nvalue = [72, 72]", fillcolor="#e5813900"] ;
1 -> 3 ;
4 [label="Age <= 6.5\ngini = 0.306\nsamples = 577\nvalue = [468, 109]", fillcolor="#e58139c4"] ;
0 -> 4 [labeldistance=2.5, labelangle=-45, headlabel="False"] ;
5 [label="gini = 0.444\nsamples = 24\nvalue = [8, 16]", fillcolor="#399de57f"] ;
4 -> 5 ;
6 [label="gini = 0.28\nsamples = 553\nvalue = [460, 93]", fillcolor="#e58139cb"] ;
4 -> 6 ;
}