digraph Tree {
node [shape=box, style="filled", color="black"] ;
0 [label="X[0] <= 0.5\nentropy = 1.0\nsamples = 70000\nvalue = [35021, 34979]", fillcolor="#e5813900"] ;
1 [label="entropy = 1.0\nsamples = 63831\nvalue = [31781, 32050]", fillcolor="#399de502"] ;
0 -> 1 [labeldistance=2.5, labelangle=45, headlabel="True"] ;
2 [label="entropy = 0.998\nsamples = 6169\nvalue = [3240, 2929]", fillcolor="#e5813918"] ;
0 -> 2 [labeldistance=2.5, labelangle=-45, headlabel="False"] ;
}