digraph Tree {
node [shape=box] ;
0 [label="Sex_male <= 0.5\nentropy = 0.9607\nsamples = 891\nvalue = [549, 342]"] ;
1 [label="PClass_3 <= 0.5\nentropy = 0.8237\nsamples = 314\nvalue = [81, 233]"] ;
0 -> 1 [labeldistance=2.5, labelangle=45, headlabel="True"] ;
2 [label="Fare <= 28.8563\nentropy = 0.2988\nsamples = 170\nvalue = [9, 161]"] ;
1 -> 2 ;
3 [label="entropy = 0.469\nsamples = 70\nvalue = [7, 63]"] ;
2 -> 3 ;
4 [label="entropy = 0.1414\nsamples = 100\nvalue = [2, 98]"] ;
2 -> 4 ;
5 [label="Fare <= 23.35\nentropy = 1.0\nsamples = 144\nvalue = [72, 72]"] ;
1 -> 5 ;
6 [label="entropy = 0.9766\nsamples = 117\nvalue = [48, 69]"] ;
5 -> 6 ;
7 [label="entropy = 0.5033\nsamples = 27\nvalue = [24, 3]"] ;
5 -> 7 ;
8 [label="Fare <= 26.2687\nentropy = 0.6992\nsamples = 577\nvalue = [468, 109]"] ;
0 -> 8 [labeldistance=2.5, labelangle=-45, headlabel="False"] ;
9 [label="Age <= 13.5\nentropy = 0.5578\nsamples = 415\nvalue = [361, 54]"] ;
8 -> 9 ;
10 [label="entropy = 0.5665\nsamples = 15\nvalue = [2, 13]"] ;
9 -> 10 ;
11 [label="entropy = 0.4769\nsamples = 400\nvalue = [359, 41]"] ;
9 -> 11 ;
12 [label="Fare <= 26.4688\nentropy = 0.9243\nsamples = 162\nvalue = [107, 55]"] ;
8 -> 12 ;
13 [label="entropy = 0.0\nsamples = 4\nvalue = [0, 4]"] ;
12 -> 13 ;
14 [label="entropy = 0.9074\nsamples = 158\nvalue = [107, 51]"] ;
12 -> 14 ;
}