digraph Tree {
node [shape=box, style="filled", color="black"] ;
0 [label="ap_hi <= 129.5\ngini = 0.5\nsamples = 46900\nvalue = [23500, 23400]", fillcolor="#e5813901"] ;
1 [label="age <= 19931.5\ngini = 0.433\nsamples = 27680\nvalue = [18923, 8757]", fillcolor="#e5813989"] ;
0 -> 1 [labeldistance=2.5, labelangle=45, headlabel="True"] ;
2 [label="3 <= 0.5\ngini = 0.358\nsamples = 16973\nvalue = [13002, 3971]", fillcolor="#e58139b1"] ;
1 -> 2 ;
3 [label="gini = 0.342\nsamples = 16254\nvalue = [12697, 3557]", fillcolor="#e58139b8"] ;
2 -> 3 ;
4 [label="gini = 0.489\nsamples = 719\nvalue = [305, 414]", fillcolor="#399de543"] ;
2 -> 4 ;
5 [label="3 <= 0.5\ngini = 0.494\nsamples = 10707\nvalue = [5921, 4786]", fillcolor="#e5813931"] ;
1 -> 5 ;
6 [label="gini = 0.486\nsamples = 9595\nvalue = [5597, 3998]", fillcolor="#e5813949"] ;
5 -> 6 ;
7 [label="gini = 0.413\nsamples = 1112\nvalue = [324, 788]", fillcolor="#399de596"] ;
5 -> 7 ;
8 [label="ap_hi <= 138.5\ngini = 0.363\nsamples = 19220\nvalue = [4577, 14643]", fillcolor="#399de5af"] ;
0 -> 8 [labeldistance=2.5, labelangle=-45, headlabel="False"] ;
9 [label="3 <= 0.5\ngini = 0.478\nsamples = 6233\nvalue = [2469, 3764]", fillcolor="#399de558"] ;
8 -> 9 ;
10 [label="gini = 0.494\nsamples = 5027\nvalue = [2229, 2798]", fillcolor="#399de534"] ;
9 -> 10 ;
11 [label="gini = 0.319\nsamples = 1206\nvalue = [240, 966]", fillcolor="#399de5c0"] ;
9 -> 11 ;
12 [label="ap_hi <= 149.5\ngini = 0.272\nsamples = 12987\nvalue = [2108, 10879]", fillcolor="#399de5ce"] ;
8 -> 12 ;
13 [label="gini = 0.302\nsamples = 6562\nvalue = [1217, 5345]", fillcolor="#399de5c5"] ;
12 -> 13 ;
14 [label="gini = 0.239\nsamples = 6425\nvalue = [891, 5534]", fillcolor="#399de5d6"] ;
12 -> 14 ;
}